<?xml version="1.0"?>
<opencv_storage>
<stage2>
  <maxWeakCount>5</maxWeakCount>
  <stageThreshold>4.4434410333633423e-01</stageThreshold>
  <weakClassifiers>
    <_>
      <internalNodes>
        0 -1 18903 -4.5508157461881638e-02</internalNodes>
      <leafValues>
        8.2495343685150146e-01 -9.5680344104766846e-01</leafValues></_>
    <_>
      <internalNodes>
        0 -1 1200 8.0683495616540313e-04</internalNodes>
      <leafValues>
        6.9919830560684204e-01 -9.2285889387130737e-01</leafValues></_>
    <_>
      <internalNodes>
        0 -1 86107 -3.8955833588261157e-05</internalNodes>
      <leafValues>
        -1. 5.9070068597793579e-01</leafValues></_>
    <_>
      <internalNodes>
        0 -1 76851 1.9079709425568581e-02</internalNodes>
      <leafValues>
        -7.4048280715942383e-01 8.6855095624923706e-01</leafValues></_>
    <_>
      <internalNodes>
        0 -1 122312 -5.8713089674711227e-03</internalNodes>
      <leafValues>
        8.5173135995864868e-01 -7.4275553226470947e-01</leafValues></_></weakClassifiers></stage2>
</opencv_storage>
